9 300
__NUMBER__ -0.15374616 0.08338376 -0.07865942 0.1150113 -0.010834704 0.1634299 0.031115124 -0.060764916 -0.03981198 0.08542417 -0.06813572 0.2626467 0.021343954 -0.19771996 -0.11078173 -0.09603272 -0.00085077796 -0.0677689 0.04926127 0.023459455 0.0010539566 -0.090479404 0.097326666 0.045120012 0.06180915 -0.0049865805 -0.007025875 0.034204096 -0.10005084 -0.025365802 -0.15283845 -0.09924597 0.028524524 0.074835464 -0.08897414 0.035338376 -0.20000945 -0.116042286 0.095333055 -0.097588435 0.018397285 0.05874541 0.11129051 0.14211896 0.096701175 -0.14753929 -0.03400778 -0.04939951 -0.042167995 0.07280048 -0.06885104 -0.109726295 0.17124322 -0.07600211 -0.10994015 -0.0002672489 -0.1468803 0.0938063 -0.021018393 0.04491202 0.014084559 -0.10285546 -0.01448868 -0.038562123 -0.17817357 -0.04186876 -0.005353724 0.053322297 -0.07970044 -0.0105460435 0.009927878 -0.19353999 0.01571531 -0.088348985 0.07275236 -0.12890847 0.07514364 -0.048730366 -0.06300427 -0.03669139 -0.07065205 0.08859073 -0.03294636 0.035269134 -0.045990106 -0.05249941 -0.030999321 -0.12122023 -0.07675737 -0.13412116 -0.084231116 -0.14680566 0.01004255 -0.036360443 -0.040298436 -0.00093322917 -0.10249777 0.012915502 -0.019574933 -0.00043293776 0.029819136 -0.11658283 -0.03543352 0.11227494 0.025001127 0.0777053 -0.06571835 0.035322852 -0.008922542 -0.06341768 0.024395341 0.08310498 -0.18384947 -0.1035819 0.021608572 -0.14032072 0.06538483 -0.15785767 0.034285784 0.011528749 0.068948254 -0.067856155 -0.0017745977 0.0056653563 -0.01371411 0.041515112 -0.054861683 -0.10819206 -0.0859644 0.010368925 0.043449253 0.17393032 0.07157479 -0.056411065 -0.19494087 0.026144968 0.042197533 -0.021755332 0.06255763 -0.12796898 -0.0243907 0.002466457 -0.043296613 0.13182908 -0.009320193 0.024011087 0.06526894 -0.05766646 -0.0181973 0.0019343417 0.0726584 -0.04288945 -0.048315432 -0.17336707 -0.04382625 0.025364252 -0.05742136 -0.04743863 -0.053678457 -0.18032789 -0.030856363 0.027263004 -0.076658726 -0.0755941 -0.07037823 0.07881223 0.07453025 -0.015695201 -0.0701374 0.039910696 -0.020136014 0.031471636 -0.12849192 -0.013069955 0.1328982 -0.087162115 -0.030256009 0.029252412 -0.054619826 0.0432717 0.08672393 0.110095225 -0.07296367 -0.05132714 -0.15229404 -0.010654659 -0.089345954 -0.044431534 -0.035361297 0.0108020855 -0.10630828 -0.12761329 0.053351153 -0.05209224 -0.050831635 0.058140524 0.025946138 -0.03861682 0.09253302 0.04688688 -0.024553366 0.06340282 -0.07957707 -0.16703512 0.038780358 -0.12138465 0.064750485 -0.00048463634 -0.013689384 -0.1214336 -0.049132023 0.07690557 0.040964086 0.029166853 -0.122698836 -0.056135118 0.04185826 0.062077075 0.04952674 -0.0006941276 -0.008895153 0.03768967 -0.0848097 0.029465389 0.021524103 0.1901119 0.020173794 -0.20314915 -0.07444539 0.009250094 -0.035043895 0.0049416637 0.07897178 0.13527977 -0.011268025 0.0102077 0.04636919 -0.061915692 0.093457095 0.054692283 0.017615737 0.02461201 0.055616044 0.020491304 0.08581035 0.05218123 -0.06724716 -0.09092544 0.13894784 -0.14297777 0.003368469 -0.1158215 -0.004977706 0.013206863 -0.014184676 0.23594353 0.025125131 0.15024887 0.121022664 -0.018955192 -0.021578645 0.0025172473 0.2221305 -0.03631297 0.0029852015 0.0591157 -0.06467446 0.0110031385 -0.00599553 0.07698948 0.050842054 -0.10144497 -0.059316725 0.04351004 -0.040220756 -0.08891769 0.15617381 -0.022805048 0.1106015 -0.0010349143 -0.09361042 0.047377102 0.12450192 -0.024672601 0.059262976 0.09397549 0.059571203 -0.058846503 -0.06512391 -0.0196512 0.023615109 -0.052927233 0.082961895 0.012500077 0.0019465764 0.01850262 0.049304653 0.04505228 0.13335449 0.11925714
new -0.14436631 0.07396767 -0.0879042 0.11182478 -0.027695809 0.17264344 0.035689708 -0.059348967 -0.03409596 0.08933765 -0.06585878 0.27831638 -0.006528972 -0.1834762 -0.103024974 -0.10119626 -0.0091591505 -0.054123975 0.020371504 0.025972929 0.003056969 -0.11107834 0.08698255 0.048069734 0.047265664 -0.0024905426 0.016194949 0.029790984 -0.096272714 -0.012065116 -0.14280412 -0.10151015 0.03001373 0.078652695 -0.08391181 0.029589105 -0.18661293 -0.095440514 0.07012897 -0.06753454 -0.0051562414 0.06524213 0.09044109 0.13588762 0.0736912 -0.14764763 -0.017995441 -0.04794437 -0.05565181 0.06872065 -0.050090916 -0.11026218 0.16659167 -0.07084304 -0.13813686 -0.017711291 -0.14800684 0.10799198 -0.02490379 0.03440382 0.024538796 -0.113648914 -0.0013995464 -0.03325081 -0.19280747 -0.075324364 0.005271031 0.032454982 -0.07414414 -0.01752207 0.00012851643 -0.18556422 0.009502134 -0.092693605 0.07588701 -0.1555508 0.08622227 -0.029372556 -0.068529084 -0.0485621 -0.05928181 0.08581512 -0.0372427 0.02696399 -0.04173342 -0.087941565 -0.039136056 -0.11856954 -0.09045898 -0.12917912 -0.09665908 -0.13981812 0.010007911 -0.03054618 -0.048092827 -0.009092362 -0.096568964 0.001547447 -0.026530487 -0.012178408 0.038388383 -0.10826572 -0.022337377 0.11800532 0.027240375 0.10073666 -0.057961103 0.02859498 -0.011743944 -0.05022592 0.0012737567 0.06659834 -0.18258604 -0.07749349 0.014413477 -0.12853166 0.056208093 -0.13145936 0.039636016 0.019789467 0.08763543 -0.055098206 -0.0003590294 0.0057877786 -0.018160118 0.039867274 -0.05393304 -0.1025175 -0.07522242 -0.016227102 0.05044583 0.1776394 0.07973561 -0.059559807 -0.18146446 0.0077379984 0.05671668 -0.016066143 0.077439666 -0.14141819 -0.025093136 0.005279711 -0.043518033 0.11942974 -0.014935662 0.03816992 0.055481456 -0.06275629 -0.0025128617 0.0062005715 0.07153161 -0.052015286 -0.03660415 -0.17781003 -0.029026538 0.02270356 -0.038144536 -0.04554563 -0.057368707 -0.16369282 -0.0206844 0.023607882 -0.057780396 -0.07980893 -0.094170466 0.08320708 0.07105986 -0.012323576 -0.07767895 0.049993705 -0.008635947 0.041304618 -0.12184787 -0.0027058525 0.15609638 -0.09928281 -0.03565164 0.051847864 -0.05310559 0.03773281 0.04629741 0.11865885 -0.07427074 -0.041849922 -0.16443478 -0.021199793 -0.087143496 -0.04944412 -0.021753285 0.020817544 -0.09086169 -0.113292135 0.050489537 -0.0338377 -0.04817418 0.088163786 0.055914525 -0.034073457 0.08484369 0.048905883 -0.024789594 0.08713485 -0.081900574 -0.15792629 0.036040027 -0.1124949 0.0683397 0.0069612134 -0.044963498 -0.11264056 -0.049105395 0.07954514 0.053400546 0.03494928 -0.13376115 -0.04594507 0.041165326 0.07591165 0.06442849 0.006274079 0.003919886 0.043119684 -0.087258816 0.048463102 0.01920778 0.20354027 0.02360938 -0.1767414 -0.07902799 0.012516889 -0.034329582 -0.0018423777 0.060999848 0.1181191 -0.013636913 -0.005206626 0.055434093 -0.07875973 0.07157332 0.05837733 0.026749274 0.0151751265 0.0694044 0.035575934 0.07603106 0.05522444 -0.06492063 -0.11571426 0.14495309 -0.15379193 -0.012539475 -0.111793324 -0.0010076041 0.026031328 -0.006870124 0.24750063 0.01940078 0.15566336 0.09686582 -0.036942206 -0.027829168 0.004702672 0.21006073 -0.020321561 -0.0053019053 0.058881517 -0.05367041 0.02533693 -0.011136479 0.08496508 0.069445536 -0.10058081 -0.07257252 0.028732857 -0.022368103 -0.06526895 0.14605448 -0.017481182 0.09368956 0.0029231177 -0.077481106 0.04031185 0.113299705 -0.04363526 0.043808896 0.09989095 0.048398852 -0.060156908 -0.082986966 -0.0336969 0.006306112 -0.05845764 0.08534915 0.026001355 0.0052089943 0.01711103 0.065611504 0.05511954 0.1379779 0.102921404
tattoo -0.14364842 0.07458567 -0.09249717 0.10885631 -0.035081845 0.16754633 0.0338616 -0.061408322 -0.030604867 0.08737228 -0.06649332 0.27854097 -0.0063730907 -0.17787829 -0.10259705 -0.10215133 -0.010277036 -0.04922594 0.014490722 0.029911354 0.0053988295 -0.108356506 0.09073743 0.04916547 0.046585266 -0.0003446967 0.020857144 0.024872497 -0.08860847 -0.010906099 -0.13528843 -0.096930504 0.030522028 0.0756409 -0.085000314 0.03140901 -0.18327585 -0.08877456 0.06773455 -0.059356965 -0.007025961 0.06973874 0.08463286 0.13778932 0.06722201 -0.143897 -0.01880723 -0.048761893 -0.061865095 0.06299653 -0.048988037 -0.109354556 0.16748856 -0.072243355 -0.13602379 -0.02057565 -0.14373569 0.10592426 -0.024477737 0.026358504 0.029795635 -0.111635305 -0.0043774704 -0.028928988 -0.19119202 -0.07681523 0.0062873573 0.028683946 -0.07252641 -0.01616769 -0.0004319624 -0.18330872 0.01000844 -0.090570636 0.077154614 -0.15458453 0.083745345 -0.028209869 -0.0721022 -0.04639108 -0.057732433 0.088074505 -0.044065233 0.025868773 -0.039753813 -0.08705204 -0.0385619 -0.11889662 -0.092459515 -0.12037748 -0.09660228 -0.13999932 0.010785444 -0.027737867 -0.045838006 -0.0133247 -0.09645248 0.005983986 -0.02717107 -0.008631362 0.033937823 -0.09938128 -0.02151488 0.1193084 0.032022007 0.10275282 -0.05634256 0.032205287 -0.011058658 -0.04909635 -0.002197851 0.06574787 -0.18461856 -0.07733886 0.01837627 -0.12616013 0.059397746 -0.12405945 0.04095774 0.017412832 0.08997007 -0.04756316 0.004623777 0.007117944 -0.02075884 0.03867594 -0.04883173 -0.0989372 -0.07843631 -0.021147767 0.046945844 0.17512968 0.07826092 -0.05888776 -0.1836969 0.007149801 0.057701644 -0.016198656 0.0794863 -0.140703 -0.025975678 0.004394812 -0.04186689 0.11250751 -0.013550189 0.04221422 0.056023914 -0.062321562 -0.0017254107 0.00857509 0.06949349 -0.0520015 -0.038122892 -0.17572165 -0.02518899 0.020970022 -0.03851406 -0.04572263 -0.061021905 -0.160946 -0.021284692 0.024533575 -0.056157675 -0.07962809 -0.09872937 0.07747852 0.073046185 -0.017099641 -0.07762763 0.046748992 -0.010629805 0.04648549 -0.11904407 0.00010031829 0.15902399 -0.09918043 -0.03560603 0.048031177 -0.053998474 0.041177794 0.044230156 0.12107025 -0.07280651 -0.035922952 -0.17180061 -0.023619896 -0.08638252 -0.048795134 -0.024450585 0.023230787 -0.09272462 -0.112923406 0.049689293 -0.028084405 -0.048989046 0.08908172 0.05680459 -0.03430828 0.08020482 0.046391875 -0.026874518 0.09369059 -0.07618372 -0.14938979 0.035057705 -0.11416937 0.06715784 0.006034244 -0.043854225 -0.11661141 -0.049536344 0.081769004 0.048843324 0.04325471 -0.13648465 -0.04370373 0.037642352 0.08301123 0.0648335 0.005916943 0.002848253 0.04630457 -0.09060532 0.051790792 0.02096925 0.20474358 0.018322611 -0.17553876 -0.083324574 0.013956125 -0.031636983 -0.0037348554 0.056717873 0.11711606 -0.012408142 -0.005693623 0.050007384 -0.07772009 0.066270754 0.054545708 0.0318504 0.012067586 0.07058418 0.03212211 0.077956036 0.054965805 -0.064076066 -0.11370666 0.14785749 -0.153073 -0.01706396 -0.11469954 0.0019735384 0.026951393 0.0002087234 0.2453801 0.015381184 0.15914105 0.09399437 -0.042924408 -0.032674078 0.0064395345 0.20889923 -0.019948468 -0.0077585685 0.06306986 -0.04887722 0.024359701 -0.0076201446 0.08595944 0.06799615 -0.10072155 -0.07452173 0.024619851 -0.019269591 -0.066175476 0.14222027 -0.015155092 0.09223909 0.0057746796 -0.0830285 0.041849334 0.112403885 -0.044961676 0.038739264 0.101175174 0.048037354 -0.059126325 -0.08610759 -0.034198485 0.005497231 -0.06321468 0.08249734 0.024680778 0.0007480504 0.01698859 0.059134617 0.05487223 0.13594222 0.10249415
time -0.1485315 0.07630087 -0.09308411 0.11433404 -0.03236101 0.17291354 0.0383928 -0.05948392 -0.037863407 0.09441227 -0.06990585 0.2851864 -0.007461122 -0.18565798 -0.10418366 -0.10724735 -0.010772242 -0.0545896 0.01876142 0.025853274 0.0035233926 -0.11324348 0.0898206 0.054342754 0.051033553 -0.0028178694 0.014254167 0.029930368 -0.09535079 -0.014007355 -0.14395864 -0.10022406 0.034993105 0.0783889 -0.0870407 0.02768361 -0.18849793 -0.09524824 0.070714325 -0.06468258 -0.005707036 0.07155739 0.09116084 0.14360113 0.07352267 -0.14917378 -0.01901706 -0.043993633 -0.0588501 0.06537259 -0.047047842 -0.11111295 0.17500235 -0.073193505 -0.1376996 -0.01846132 -0.14954048 0.113903 -0.025425931 0.029032273 0.027001234 -0.114965715 -0.0058631403 -0.032349966 -0.19965617 -0.07921419 0.0056093596 0.03524151 -0.073427275 -0.017599652 -0.004145946 -0.1939299 0.0072313575 -0.09227692 0.07918752 -0.16110851 0.0875851 -0.029747134 -0.07154028 -0.045289345 -0.059874184 0.08631724 -0.038800225 0.029186575 -0.03698389 -0.094267964 -0.037347324 -0.12399952 -0.08923793 -0.12598127 -0.0966652 -0.14547443 0.01425349 -0.033340365 -0.050741944 -0.013043972 -0.09600781 0.005220329 -0.029888865 -0.008674651 0.034887943 -0.1099826 -0.021895347 0.12312253 0.02765561 0.10567232 -0.061633963 0.032521065 -0.014598918 -0.05498828 0.0054428848 0.06602234 -0.19172767 -0.07923869 0.016071996 -0.13282435 0.059014294 -0.13195589 0.038436566 0.01579121 0.08983363 -0.05075074 0.0008460519 0.008648077 -0.021326002 0.042980213 -0.049481243 -0.10777749 -0.081374876 -0.016987463 0.051527 0.1829447 0.083276406 -0.061248627 -0.18872534 0.009081802 0.06267264 -0.016067095 0.07815678 -0.1441205 -0.024476035 0.0057275593 -0.040791113 0.11789626 -0.017190777 0.0445473 0.059434935 -0.063326135 -0.0042780433 0.010535298 0.07209397 -0.055405654 -0.036951706 -0.18402977 -0.028119367 0.019648403 -0.040932633 -0.04694213 -0.06446778 -0.16602814 -0.019622292 0.024655377 -0.060536984 -0.08035982 -0.0982367 0.08453459 0.07470851 -0.01646101 -0.079458766 0.047826383 -0.011256092 0.046707533 -0.12431759 -0.00064191065 0.16635871 -0.1009435 -0.0364815 0.051639438 -0.054950148 0.03781694 0.047171928 0.1268159 -0.074686825 -0.03794243 -0.17213716 -0.024168178 -0.09419017 -0.054132227 -0.026790703 0.028256292 -0.09699495 -0.11266281 0.052973032 -0.03157563 -0.052723162 0.09159851 0.059791733 -0.037560605 0.0869121 0.04951334 -0.029327987 0.091233276 -0.0824316 -0.15802796 0.03823332 -0.11562256 0.06930554 0.009238402 -0.044589154 -0.120056964 -0.052540567 0.07801631 0.049592927 0.03741741 -0.13859695 -0.046979412 0.042652704 0.08433206 0.067162305 0.009491858 0.0035578685 0.04404739 -0.09612791 0.051290866 0.019508354 0.21009824 0.022268787 -0.1778953 -0.08024433 0.01204142 -0.034822352 0.0007792463 0.06406863 0.118600465 -0.011305649 -0.0044556786 0.056811165 -0.081804805 0.07193797 0.053778138 0.030399436 0.017016204 0.07003844 0.033208534 0.07749811 0.055686824 -0.070004694 -0.12143202 0.150713 -0.15905246 -0.0134469485 -0.11770557 -0.0026489643 0.029310238 -0.0023309202 0.2563347 0.016732786 0.16872047 0.09801606 -0.042347647 -0.031187616 0.0006768894 0.2152844 -0.023488162 -0.0043017943 0.059916068 -0.050731566 0.023879576 -0.008708898 0.08632971 0.07231834 -0.10447524 -0.0762692 0.02743577 -0.024995105 -0.06588741 0.14607753 -0.022991378 0.09272611 0.007981353 -0.082063384 0.04500356 0.1176548 -0.047904883 0.041562505 0.10080295 0.05151147 -0.06494756 -0.089300066 -0.036313415 0.0061353794 -0.061024368 0.085872404 0.026200201 0.0022757233 0.01933544 0.0631536 0.058473032 0.13433357 0.10844611
help -0.1420904 0.07893146 -0.09108194 0.11270208 -0.034754794 0.17155477 0.03740961 -0.057329286 -0.029280143 0.09200519 -0.068070844 0.2814224 -0.009496192 -0.18023498 -0.10399384 -0.10343423 -0.008800566 -0.05342666 0.0171164 0.028952781 0.0076868627 -0.11319065 0.08980101 0.047141816 0.04592407 -0.00551372 0.021137603 0.029638812 -0.09041815 -0.014483435 -0.13812211 -0.09793189 0.032040067 0.07683748 -0.08518604 0.028619139 -0.18797296 -0.09482966 0.06546145 -0.064410776 -0.0029377504 0.06675799 0.08819568 0.13613166 0.06845838 -0.14551398 -0.019056244 -0.04696869 -0.057939135 0.062212165 -0.047127634 -0.11149428 0.16743128 -0.06935233 -0.1369043 -0.018806761 -0.14655665 0.106061354 -0.026131615 0.028441666 0.026953388 -0.11162377 -0.0038238598 -0.0321278 -0.19770244 -0.0778732 0.00846554 0.03211881 -0.07883965 -0.018019438 -0.0010880178 -0.18773946 0.008520468 -0.09497158 0.07989333 -0.15434258 0.089718 -0.026599651 -0.07240142 -0.0476922 -0.06296057 0.08784 -0.039827775 0.027381925 -0.04091062 -0.08981535 -0.041257367 -0.12277464 -0.08971173 -0.12743925 -0.09466542 -0.14100266 0.011200369 -0.032468323 -0.048547365 -0.013327033 -0.093613796 0.003763011 -0.028932065 -0.011665989 0.033885434 -0.1045168 -0.022069506 0.12179881 0.02839476 0.10260102 -0.059754405 0.033647083 -0.013505192 -0.051510453 0.00121484 0.065683655 -0.18536058 -0.08295274 0.017558897 -0.13169536 0.06236685 -0.12761195 0.042019717 0.02085454 0.089869745 -0.050824624 0.001525692 0.0054811463 -0.019666689 0.038829662 -0.047805987 -0.10235893 -0.07883702 -0.019419879 0.048811994 0.17654172 0.08302451 -0.05906262 -0.18372633 0.007800098 0.060921572 -0.015711555 0.077072896 -0.14253882 -0.024506228 0.008770857 -0.044940036 0.11920953 -0.014677974 0.04360666 0.054783437 -0.061510004 -0.0040784623 0.0076710493 0.06550022 -0.048549384 -0.034630846 -0.1811694 -0.0261566 0.01614155 -0.038655598 -0.04658794 -0.061999243 -0.1646728 -0.021127941 0.024192603 -0.058940724 -0.076843604 -0.09831097 0.0810677 0.074213706 -0.018279262 -0.076961406 0.04905602 -0.009191336 0.04718538 -0.119868726 -0.00023942934 0.15994677 -0.098989286 -0.037674442 0.050890625 -0.05409165 0.03999713 0.04426785 0.119519606 -0.073674746 -0.0385752 -0.17339766 -0.02344265 -0.09291153 -0.051639155 -0.024341857 0.024866719 -0.094059944 -0.11174708 0.04896986 -0.033071347 -0.043212667 0.09116688 0.058885362 -0.038008187 0.08173399 0.046526924 -0.026515853 0.09405561 -0.0833543 -0.15520261 0.03864158 -0.11448949 0.06569784 0.0070863445 -0.044494547 -0.12095186 -0.047248214 0.07930017 0.052373905 0.036904275 -0.13869849 -0.04594508 0.038711548 0.08237885 0.06432983 0.0071363463 0.004567366 0.0410283 -0.090683825 0.050135463 0.016600618 0.21079636 0.01979212 -0.17769903 -0.081477016 0.011886315 -0.03301253 -0.0037649975 0.056774672 0.117658325 -0.011027602 -0.005778693 0.05468852 -0.082856126 0.07031095 0.054148167 0.030897498 0.011621914 0.068727605 0.038236216 0.073991545 0.05467554 -0.062018983 -0.11453581 0.14969675 -0.15570761 -0.014927877 -0.112482615 -0.0024815507 0.028445747 -0.00059852353 0.24767405 0.018534062 0.15827511 0.09578045 -0.039939795 -0.028144786 0.0037133114 0.21190828 -0.019418824 -0.0030596186 0.06272958 -0.04852848 0.02811007 -0.00825896 0.08707141 0.0724862 -0.09911476 -0.077965654 0.027015844 -0.021537447 -0.06406165 0.1454366 -0.018893942 0.093153045 0.009073844 -0.08005845 0.040618252 0.11275904 -0.048615616 0.04502795 0.10224243 0.052568518 -0.06320592 -0.08877748 -0.03637383 0.004618084 -0.063641295 0.08123258 0.022294147 0.0037604216 0.017329741 0.063758865 0.053897396 0.13625677 0.10295519
looking -0.14434144 0.0790549 -0.09079693 0.11297121 -0.031525142 0.17035587 0.038739387 -0.060344547 -0.03814018 0.08888609 -0.06917952 0.2835284 -0.006371255 -0.18725106 -0.10291849 -0.10273648 -0.014707979 -0.049730405 0.016392492 0.02602256 0.0023065107 -0.11349571 0.092417106 0.048780702 0.04874085 -0.005034003 0.017734736 0.032444168 -0.09759692 -0.012715877 -0.14366086 -0.100027785 0.033938136 0.07724832 -0.08505725 0.02859274 -0.18643057 -0.09544592 0.06909712 -0.065572925 -0.004760874 0.06879679 0.089681946 0.14119558 0.07519281 -0.14875208 -0.016296467 -0.04793261 -0.056427848 0.06602198 -0.04740667 -0.108361505 0.16767362 -0.074127585 -0.1377825 -0.021296822 -0.14482035 0.1088202 -0.029724156 0.028992375 0.026177619 -0.11583628 -0.00067338935 -0.032141592 -0.19552772 -0.076106764 0.006092674 0.033376593 -0.07170137 -0.01780724 -0.0048187897 -0.19047923 0.0071333675 -0.0940913 0.076117456 -0.15572487 0.08728335 -0.029963067 -0.070416495 -0.048422564 -0.059559237 0.084881 -0.036918636 0.028594907 -0.041076113 -0.09248708 -0.03704555 -0.122361034 -0.0904263 -0.124332845 -0.09669889 -0.14646085 0.013215233 -0.028560823 -0.049380023 -0.011523966 -0.09410842 0.006281902 -0.028392723 -0.009626612 0.034407035 -0.10783306 -0.022180831 0.119053274 0.027797021 0.10176115 -0.059735015 0.030416211 -0.011082576 -0.052510943 -0.00019342358 0.06354912 -0.18790896 -0.078389004 0.016679093 -0.13236056 0.059484378 -0.13111097 0.037674382 0.020698456 0.09324516 -0.05373726 -0.00010762091 0.0063534505 -0.01709942 0.0397977 -0.049981758 -0.10287575 -0.07715705 -0.018339096 0.051605582 0.18263139 0.08316002 -0.059427112 -0.18487711 0.005256032 0.062269658 -0.015794367 0.07584839 -0.14006644 -0.025420446 0.0042785676 -0.04080961 0.11583823 -0.013663468 0.04205899 0.06047666 -0.0639946 -0.00295767 0.0110366605 0.06917288 -0.053964432 -0.038771678 -0.18062888 -0.026120024 0.01715644 -0.036093276 -0.04211952 -0.060412727 -0.16299403 -0.020431856 0.023546979 -0.058060456 -0.081367955 -0.09318135 0.08311215 0.07149128 -0.01722438 -0.078310214 0.051031385 -0.008451737 0.0457416 -0.12178062 -0.0032640817 0.16249165 -0.100832604 -0.03943883 0.05133662 -0.052795295 0.03661955 0.04418629 0.124637716 -0.075920425 -0.038191117 -0.16794902 -0.020609051 -0.090410545 -0.049963444 -0.023785109 0.025589326 -0.094951175 -0.11113564 0.050825626 -0.028215602 -0.048144728 0.09144733 0.05474963 -0.033860736 0.082919225 0.049070742 -0.027371252 0.08898319 -0.08065141 -0.15614545 0.03768669 -0.11584891 0.06709274 0.011251785 -0.0459419 -0.11727283 -0.050320886 0.07751513 0.05104962 0.03501379 -0.13729139 -0.049362425 0.041406043 0.080914825 0.068601884 0.008324582 0.0060271947 0.045037355 -0.092687786 0.053692374 0.016381832 0.20818418 0.024386538 -0.17667791 -0.07814835 0.009364597 -0.034271266 -0.00044523977 0.061298974 0.11400491 -0.012300484 -0.005634921 0.05274859 -0.08256766 0.0691257 0.05486967 0.030853909 0.014800711 0.06955483 0.03521878 0.07788995 0.056789882 -0.07076951 -0.11783111 0.14786795 -0.15313362 -0.013906983 -0.115910545 0.00027051737 0.03019205 -0.0074503007 0.25163004 0.019467408 0.16383566 0.09422008 -0.0382152 -0.03165679 0.003611154 0.20920335 -0.021601617 -0.0059595876 0.059257954 -0.05410814 0.023823185 -0.009717326 0.0842841 0.07365881 -0.103042 -0.07528292 0.029531287 -0.021982698 -0.06830805 0.1450419 -0.02072991 0.091982156 0.007112537 -0.081543624 0.040087394 0.114618205 -0.04467144 0.04054424 0.102639765 0.04922501 -0.0626716 -0.08621541 -0.03628988 0.006861304 -0.05894198 0.083796844 0.023901252 0.003939535 0.015940677 0.063477226 0.057687044 0.13738139 0.10471972
design -0.14762221 0.07942811 -0.09317235 0.11387235 -0.03140165 0.17508492 0.03800354 -0.059211664 -0.039585594 0.09187601 -0.07107649 0.28697008 -0.005820106 -0.18791519 -0.10379074 -0.10744956 -0.012847806 -0.051502235 0.018312508 0.026573287 0.0038436116 -0.11460483 0.09116803 0.04984551 0.048885107 -0.0025792136 0.0172617 0.028940521 -0.097989686 -0.013190491 -0.14614473 -0.10251942 0.03605265 0.081582196 -0.0876879 0.027585914 -0.18938103 -0.09300595 0.07160234 -0.06456011 -0.007662447 0.071255185 0.09267756 0.13949317 0.073906004 -0.14922163 -0.01615034 -0.049130153 -0.059955046 0.0685025 -0.04765327 -0.109437406 0.17260194 -0.07612393 -0.1400843 -0.02145318 -0.1488634 0.11370644 -0.028996598 0.03241109 0.027209701 -0.11610268 -6.440617e-05 -0.030195551 -0.19998825 -0.076954804 0.007358417 0.030254092 -0.07208144 -0.020013435 -0.0044064308 -0.19053175 0.0064199856 -0.094524704 0.076484896 -0.15985654 0.08652323 -0.029074222 -0.068047 -0.049113143 -0.062613495 0.08799542 -0.037691202 0.025686715 -0.039213974 -0.09227151 -0.039526872 -0.124914184 -0.09219296 -0.12711059 -0.09898233 -0.14461447 0.0144645255 -0.029327953 -0.04783462 -0.015027518 -0.09409341 0.0049955817 -0.027235368 -0.009968841 0.03675053 -0.106563464 -0.023202328 0.1223367 0.031143785 0.10588154 -0.05851243 0.029513841 -0.011650219 -0.052739967 0.0028099304 0.067096926 -0.18946613 -0.07742355 0.015810238 -0.13116117 0.059978083 -0.13316588 0.040554833 0.018037561 0.09452319 -0.053634174 -0.000678007 0.005676827 -0.019386955 0.038968343 -0.050100368 -0.10342141 -0.08005059 -0.01894351 0.049109213 0.18425393 0.08323492 -0.060932558 -0.18736394 0.0045875725 0.063269004 -0.014732831 0.07976622 -0.14260602 -0.027565971 0.0062344563 -0.04118756 0.1192033 -0.016490044 0.04471125 0.058478687 -0.066429 -0.0018805836 0.008862892 0.07131867 -0.054464743 -0.037347153 -0.18448515 -0.028274374 0.019658308 -0.03729252 -0.046753112 -0.060325406 -0.16621958 -0.016986817 0.02513926 -0.059805218 -0.08072077 -0.097348064 0.08370383 0.07526993 -0.017119542 -0.08129878 0.05250883 -0.0057596974 0.04580011 -0.12464013 -0.0035110742 0.16458423 -0.10265641 -0.039589573 0.05151304 -0.05445092 0.03753691 0.043534946 0.1233806 -0.07651872 -0.039195135 -0.17201999 -0.02019478 -0.09387619 -0.052517813 -0.026682809 0.026386905 -0.09849092 -0.11294808 0.051254585 -0.032588176 -0.052397247 0.0941311 0.057709415 -0.0374144 0.085784204 0.051257085 -0.025948294 0.09325506 -0.08158183 -0.15912509 0.03755351 -0.11573727 0.06710309 0.011370284 -0.046690494 -0.116696365 -0.050214108 0.07742339 0.05530264 0.038309664 -0.13897687 -0.049753603 0.04059598 0.08270859 0.06823189 0.009422302 0.0065208753 0.045884132 -0.092556596 0.05280808 0.019598007 0.2118594 0.023740916 -0.1793113 -0.08131659 0.010924108 -0.035612922 -0.0023099156 0.063378856 0.11956625 -0.015212034 -0.006177863 0.05338667 -0.08335125 0.06941473 0.05553788 0.030855201 0.01370639 0.07454784 0.036707215 0.079637975 0.05882943 -0.070264205 -0.12187823 0.15262681 -0.15640724 -0.016030962 -0.11613231 -0.000613787 0.029258482 -0.005127182 0.25325254 0.016512519 0.16541843 0.09365399 -0.040041648 -0.031647954 0.003847759 0.21482207 -0.022119263 -0.0058600684 0.056481045 -0.054127537 0.023351496 -0.011613025 0.087389424 0.07658801 -0.10207554 -0.07442407 0.027598703 -0.022655029 -0.068409644 0.14704745 -0.020960752 0.0917995 0.0061361766 -0.07919427 0.039598342 0.113847844 -0.04697365 0.041899987 0.10417222 0.049170557 -0.06405184 -0.08930112 -0.038059548 0.005066431 -0.06027546 0.08713442 0.024446996 0.002705781 0.017393809 0.0664093 0.056704644 0.13885655 0.10486301
ok -0.09976131 0.053303096 -0.06259635 0.07789405 -0.019654356 0.11921383 0.026560029 -0.040219523 -0.026168033 0.06301718 -0.047566567 0.19499864 -0.0051975185 -0.12887727 -0.067708395 -0.071548656 -0.009500923 -0.032138184 0.01135775 0.017650008 0.0014044694 -0.078060746 0.06194926 0.033435304 0.03188851 -0.0010449252 0.010816187 0.018932583 -0.0665776 -0.007927556 -0.09622612 -0.06934942 0.026014227 0.055063076 -0.059416723 0.019074664 -0.12712456 -0.0655869 0.04565781 -0.04436637 -0.00440116 0.049308006 0.06292556 0.09575791 0.05218091 -0.099918745 -0.010176933 -0.03253042 -0.04022961 0.045419805 -0.03165931 -0.07528609 0.115545034 -0.051923923 -0.09630375 -0.015783776 -0.10192759 0.076470956 -0.020628717 0.02227178 0.017233923 -0.080045 -0.0012911662 -0.019869704 -0.13391607 -0.051472045 0.00493221 0.021460284 -0.048049066 -0.012831213 -0.002502348 -0.13093536 0.0026763366 -0.06292749 0.053829197 -0.10801827 0.057877623 -0.020200536 -0.04799139 -0.032585725 -0.04312364 0.05981263 -0.02492923 0.018146807 -0.028113551 -0.062973835 -0.024846356 -0.08395758 -0.063751884 -0.086833596 -0.06691758 -0.099622265 0.008134418 -0.021053748 -0.034280974 -0.0075926646 -0.06566575 0.00450853 -0.018766876 -0.004937269 0.026790898 -0.075534545 -0.015055559 0.0799917 0.019434374 0.07168357 -0.038865384 0.019057665 -0.00834298 -0.0366674 0.000120483084 0.043962162 -0.12609074 -0.051680256 0.009659948 -0.089481354 0.038024005 -0.0902704 0.028072828 0.013641204 0.06481725 -0.036690142 0.0012730403 0.0027167955 -0.010509415 0.028704429 -0.035701282 -0.07094612 -0.05365867 -0.012215624 0.03428983 0.12571245 0.056205258 -0.04030001 -0.12680522 0.0031877838 0.041033577 -0.009719385 0.052648924 -0.097615026 -0.017944181 0.0039217323 -0.027442763 0.08110272 -0.011475621 0.029658837 0.038972825 -0.045228966 -0.0005063717 0.0075276406 0.046524186 -0.036707405 -0.02515731 -0.12563972 -0.018053489 0.013135188 -0.025802195 -0.030048618 -0.04403184 -0.11127807 -0.011406623 0.01612743 -0.040748622 -0.054582562 -0.06664022 0.05778012 0.049519707 -0.012309589 -0.0551025 0.03496534 -0.00273379 0.028570129 -0.08456495 -0.0010115255 0.11009332 -0.07081365 -0.02550407 0.035208263 -0.03516155 0.02517041 0.030784708 0.08420177 -0.05033686 -0.026463093 -0.11751716 -0.015140814 -0.06236339 -0.03630417 -0.016269907 0.018751943 -0.06487419 -0.07732815 0.033606015 -0.020952119 -0.034279846 0.06220512 0.038191326 -0.022849599 0.05758863 0.033008236 -0.017356772 0.06425252 -0.055489663 -0.1054316 0.0265935 -0.077121586 0.044278942 0.005948778 -0.031986594 -0.07746153 -0.03523589 0.053603563 0.036196902 0.024784844 -0.094355926 -0.031598516 0.027838578 0.054589454 0.046647456 0.007099681 0.0048445556 0.032185774 -0.061883453 0.035257977 0.010607056 0.1418497 0.014344249 -0.11973048 -0.053861924 0.0083976425 -0.024222355 0.0004470054 0.043340474 0.07977261 -0.009921855 -0.004998727 0.03733536 -0.05612393 0.04576723 0.03887029 0.01947558 0.0074425885 0.048967235 0.022591315 0.053320147 0.039524775 -0.04952153 -0.08330927 0.10394146 -0.10640892 -0.013301342 -0.07933903 -0.0020095091 0.020579463 -0.0050575673 0.17291057 0.011718288 0.11212978 0.0657127 -0.027222168 -0.022146977 0.00058507174 0.14495483 -0.015667884 -0.004630492 0.040612444 -0.036617197 0.015218581 -0.0073397523 0.05823016 0.05225038 -0.07103007 -0.049294394 0.020546872 -0.017039796 -0.04375992 0.10022513 -0.016128708 0.062293984 0.006125199 -0.055163994 0.027200768 0.078335 -0.03303539 0.028817803 0.06796158 0.032950718 -0.041746654 -0.059211735 -0.024871347 0.0015762654 -0.041570656 0.06048115 0.017547334 0.001052022 0.012975539 0.04606536 0.040309645 0.09473776 0.07213156
tats -0.0663693 0.03445167 -0.04095707 0.05270187 -0.013117762 0.07918533 0.016707845 -0.027603332 -0.016075032 0.041479107 -0.032918897 0.13106197 -0.0046955547 -0.08589528 -0.046468478 -0.048935838 -0.0074236686 -0.022779224 0.0062580993 0.009897685 0.0007820156 -0.051712673 0.04176002 0.022620214 0.022005977 -0.001079489 0.006767324 0.012235716 -0.045466192 -0.005246823 -0.06650463 -0.045362838 0.015886178 0.036333892 -0.04077284 0.014018377 -0.086888336 -0.041726995 0.03247821 -0.031116713 -0.0046498063 0.033554636 0.04078928 0.064026 0.0333075 -0.06884155 -0.008000839 -0.023086876 -0.028761907 0.031254303 -0.020589646 -0.050907608 0.079599336 -0.034190543 -0.063920595 -0.011410588 -0.06913881 0.05079308 -0.012554808 0.013010284 0.011894424 -0.05299303 -0.00022638144 -0.01329275 -0.08947904 -0.03663417 0.002753354 0.015310696 -0.032496765 -0.009001247 -0.0006906061 -0.08676035 0.00275386 -0.04286865 0.035946805 -0.07271908 0.038530257 -0.0123550575 -0.03073046 -0.021580001 -0.030031674 0.039376117 -0.017425802 0.010955676 -0.020034213 -0.04144941 -0.016647452 -0.055187166 -0.042656977 -0.05773747 -0.04580968 -0.06531258 0.007885332 -0.015670959 -0.021617774 -0.0061354935 -0.043144394 0.0012422344 -0.012425662 -0.003926276 0.016772613 -0.049143914 -0.008762516 0.056721702 0.014080974 0.047084898 -0.027319366 0.014270134 -0.0059517105 -0.022681072 -0.0006871059 0.03105659 -0.086431965 -0.036591534 0.008011595 -0.05796245 0.025046164 -0.058793694 0.017471725 0.010322408 0.043686222 -0.02279686 0.00035432493 0.0025544455 -0.009578586 0.018846333 -0.024585923 -0.04936877 -0.035718672 -0.009691307 0.022764754 0.082180806 0.03933092 -0.028588105 -0.08387013 0.0041819033 0.028630214 -0.008208783 0.035616994 -0.0661395 -0.010485543 0.0019067504 -0.019355286 0.054423913 -0.0061592865 0.01949302 0.02641429 -0.029066669 -0.0016356683 0.006389905 0.03374868 -0.025005214 -0.018001849 -0.085398324 -0.013966296 0.01070902 -0.018475851 -0.020943793 -0.030341933 -0.07423066 -0.007523975 0.011145767 -0.02501258 -0.037005488 -0.04316098 0.038919237 0.033285983 -0.009017963 -0.039050255 0.022901235 -0.0031917836 0.020532753 -0.055922344 0.00024419287 0.074663796 -0.048060007 -0.017909685 0.022871645 -0.02369387 0.017650494 0.02121913 0.057048496 -0.036212187 -0.018731777 -0.07859006 -0.011703095 -0.041004177 -0.022598155 -0.011495629 0.013246801 -0.04469258 -0.053616736 0.022190811 -0.0129446965 -0.023665586 0.042762354 0.027857203 -0.014997103 0.038401224 0.022257175 -0.011277398 0.043065473 -0.0373516 -0.07164971 0.018495452 -0.053615607 0.031115605 0.005619679 -0.023016851 -0.052362543 -0.022058561 0.035536043 0.024430562 0.016676858 -0.06323844 -0.021690113 0.018761065 0.03851688 0.033118088 0.0049655125 0.0017945333 0.020757688 -0.04147002 0.02448264 0.008332222 0.09493696 0.009566334 -0.08111097 -0.036604058 0.0062073832 -0.015060173 0.0008137685 0.02704976 0.053188358 -0.004900256 -0.0011368712 0.024851313 -0.037877288 0.031639308 0.025866807 0.014273001 0.0043041883 0.033321787 0.014192352 0.034105618 0.025974778 -0.030915344 -0.05399979 0.070294656 -0.07002937 -0.0059727947 -0.05195754 -0.0023883316 0.015060465 -0.0010594901 0.1162775 0.00785578 0.074703634 0.04487284 -0.019928403 -0.014197323 0.0014972809 0.097141035 -0.010191699 -0.004506603 0.025468286 -0.022569861 0.009913125 -0.0037939523 0.039256427 0.033687185 -0.04644513 -0.033679444 0.012430184 -0.011264922 -0.029344827 0.066142865 -0.009881219 0.04130606 0.0048856833 -0.037688106 0.018030649 0.05405363 -0.020970553 0.018336488 0.04660135 0.022291498 -0.030251162 -0.041301347 -0.018166322 0.002904198 -0.028379217 0.039048333 0.012467743 0.0019315599 0.007877894 0.030350566 0.027476551 0.06480236 0.04717141
